<?xml version="1.0"?>
<opencv_storage>
<cascade>
  <stageType>BOOST</stageType>
  <featureType>HAAR</featureType>
  <height>30</height>
  <width>30</width>
  <stageParams>
    <boostType>GAB</boostType>
    <minHitRate>9.9500000476837158e-01</minHitRate>
    <maxFalseAlarm>3.0000001192092896e-01</maxFalseAlarm>
    <weightTrimRate>9.4999999999999996e-01</weightTrimRate>
    <maxDepth>1</maxDepth>
    <maxWeakCount>100</maxWeakCount></stageParams>
  <featureParams>
    <maxCatCount>0</maxCatCount>
    <featSize>1</featSize>
    <mode>BASIC</mode></featureParams>
  <stageNum>7</stageNum>
  <stages>
    <!-- stage 0 -->
    <_>
      <maxWeakCount>4</maxWeakCount>
      <stageThreshold>-2.2360625267028809e+00</stageThreshold>
      <weakClassifiers>
        <_>
          <internalNodes>
            0 -1 2 4.3012879788875580e-02</internalNodes>
          <leafValues>
            -9.7333335876464844e-01 5.6643354892730713e-01</leafValues></_>
        <_>
          <internalNodes>
            0 -1 10 -1.6948331147432327e-02</internalNodes>
          <leafValues>
            3.6752185225486755e-01 -9.4286531209945679e-01</leafValues></_>
        <_>
          <internalNodes>
            0 -1 43 3.3346034586429596e-02</internalNodes>
          <leafValues>
            -8.0922037363052368e-01 7.2187232971191406e-01</leafValues></_>
        <_>
          <internalNodes>
            0 -1 27 7.8025624155998230e-02</internalNodes>
          <leafValues>
            -9.1622108221054077e-01 4.8935639858245850e-01</leafValues></_></weakClassifiers></_>
    <!-- stage 1 -->
    <_>
      <maxWeakCount>5</maxWeakCount>
      <stageThreshold>-2.3714408874511719e+00</stageThreshold>
      <weakClassifiers>
        <_>
          <internalNodes>
            0 -1 4 -1.0042808949947357e-01</internalNodes>
          <leafValues>
            5.2272725105285645e-01 -9.4570982456207275e-01</leafValues></_>
        <_>
          <internalNodes>
            0 -1 10 -1.7278887331485748e-02</internalNodes>
          <leafValues>
            2.8277271986007690e-01 -8.8846212625503540e-01</leafValues></_>
        <_>
          <internalNodes>
            0 -1 7 3.3800908923149109e-01</internalNodes>
          <leafValues>
            -6.8565231561660767e-01 6.6272175312042236e-01</leafValues></_>
        <_>
          <internalNodes>
            0 -1 46 2.7000345289707184e-02</internalNodes>
          <leafValues>
            -5.4753339290618896e-01 6.6932308673858643e-01</leafValues></_>
        <_>
          <internalNodes>
            0 -1 12 4.2065181769430637e-03</internalNodes>
          <leafValues>
            -4.7531804442405701e-01 7.5840359926223755e-01</leafValues></_></weakClassifiers></_>
    <!-- stage 2 -->
    <_>
      <maxWeakCount>7</maxWeakCount>
      <stageThreshold>-1.9588036537170410e+00</stageThreshold>
      <weakClassifiers>
        <_>
          <internalNodes>
            0 -1 36 -7.5792662799358368e-02</internalNodes>
          <leafValues>
            8.9655175805091858e-02 -9.5235067605972290e-01</leafValues></_>
        <_>
          <internalNodes>
            0 -1 42 2.0508663356304169e-01</internalNodes>
          <leafValues>
            -7.8913170099258423e-01 6.8413335084915161e-01</leafValues></_>
        <_>
          <internalNodes>
            0 -1 8 2.7210358530282974e-02</internalNodes>
          <leafValues>
            -6.5816318988800049e-01 5.2313762903213501e-01</leafValues></_>
        <_>
          <internalNodes>
            0 -1 3 4.5474752783775330e-02</internalNodes>
          <leafValues>
            -4.8614737391471863e-01 6.3594526052474976e-01</leafValues></_>
        <_>
          <internalNodes>
            0 -1 14 -3.0119861476123333e-03</internalNodes>
          <leafValues>
            3.8043263554573059e-01 -7.9775613546371460e-01</leafValues></_>
        <_>
          <internalNodes>
            0 -1 23 -1.1527894064784050e-02</internalNodes>
          <leafValues>
            -9.5733857154846191e-01 2.4452184140682220e-01</leafValues></_>
        <_>
          <internalNodes>
            0 -1 17 9.0407447714824229e-06</internalNodes>
          <leafValues>
            -8.0018186569213867e-01 3.0203482508659363e-01</leafValues></_></weakClassifiers></_>
    <!-- stage 3 -->
    <_>
      <maxWeakCount>7</maxWeakCount>
      <stageThreshold>-2.0178899765014648e+00</stageThreshold>
      <weakClassifiers>
        <_>
          <internalNodes>
            0 -1 35 -5.7383194565773010e-02</internalNodes>
          <leafValues>
            -9.0909093618392944e-02 -9.5251846313476562e-01</leafValues></_>
        <_>
          <internalNodes>
            0 -1 41 6.2655180692672729e-02</internalNodes>
          <leafValues>
            -7.8857982158660889e-01 4.5689627528190613e-01</leafValues></_>
        <_>
          <internalNodes>
            0 -1 15 3.4333229064941406e-01</internalNodes>
          <leafValues>
            -6.2809181213378906e-01 4.7726184129714966e-01</leafValues></_>
        <_>
          <internalNodes>
            0 -1 6 4.1602313518524170e-02</internalNodes>
          <leafValues>
            -4.5297467708587646e-01 7.0769238471984863e-01</leafValues></_>
        <_>
          <internalNodes>
            0 -1 30 4.8050720244646072e-02</internalNodes>
          <leafValues>
            3.0044963955879211e-01 -9.8726689815521240e-01</leafValues></_>
        <_>
          <internalNodes>
            0 -1 32 2.4920046329498291e-02</internalNodes>
          <leafValues>
            2.4368250370025635e-01 -9.3321228027343750e-01</leafValues></_>
        <_>
          <internalNodes>
            0 -1 9 -5.6940512731671333e-03</internalNodes>
          <leafValues>
            2.6014274358749390e-01 -7.0471006631851196e-01</leafValues></_></weakClassifiers></_>
    <!-- stage 4 -->
    <_>
      <maxWeakCount>8</maxWeakCount>
      <stageThreshold>-2.4373507499694824e+00</stageThreshold>
      <weakClassifiers>
        <_>
          <internalNodes>
            0 -1 34 -6.6660754382610321e-02</internalNodes>
          <leafValues>
            -3.4317344427108765e-01 -9.5698213577270508e-01</leafValues></_>
        <_>
          <internalNodes>
            0 -1 11 -1.2762409448623657e-01</internalNodes>
          <leafValues>
            2.1224114298820496e-01 -7.7794414758682251e-01</leafValues></_>
        <_>
          <internalNodes>
            0 -1 38 -1.1813288927078247e-01</internalNodes>
          <leafValues>
            6.1401796340942383e-01 -5.4193150997161865e-01</leafValues></_>
        <_>
          <internalNodes>
            0 -1 5 -4.9721598625183105e-03</internalNodes>
          <leafValues>
            3.6234414577484131e-01 -6.4557689428329468e-01</leafValues></_>
        <_>
          <internalNodes>
            0 -1 25 -1.8410260963719338e-05</internalNodes>
          <leafValues>
            2.8119310736656189e-01 -8.0244803428649902e-01</leafValues></_>
        <_>
          <internalNodes>
            0 -1 1 -8.6957558989524841e-02</internalNodes>
          <leafValues>
            6.9638007879257202e-01 -3.0050778388977051e-01</leafValues></_>
        <_>
          <internalNodes>
            0 -1 21 7.7089279890060425e-02</internalNodes>
          <leafValues>
            -7.1216315031051636e-01 3.1498622894287109e-01</leafValues></_>
        <_>
          <internalNodes>
            0 -1 28 4.9960441887378693e-02</internalNodes>
          <leafValues>
            1.8941232562065125e-01 -9.9136042594909668e-01</leafValues></_></weakClassifiers></_>
    <!-- stage 5 -->
    <_>
      <maxWeakCount>9</maxWeakCount>
      <stageThreshold>-2.2684860229492188e+00</stageThreshold>
      <weakClassifiers>
        <_>
          <internalNodes>
            0 -1 40 7.0053428411483765e-02</internalNodes>
          <leafValues>
            -9.3483710289001465e-01 -9.9009899422526360e-03</leafValues></_>
        <_>
          <internalNodes>
            0 -1 37 -4.3601118028163910e-02</internalNodes>
          <leafValues>
            1.8551102280616760e-01 -7.6263844966888428e-01</leafValues></_>
        <_>
          <internalNodes>
            0 -1 0 1.8748462200164795e-02</internalNodes>
          <leafValues>
            -4.8929160833358765e-01 4.5088854432106018e-01</leafValues></_>
        <_>
          <internalNodes>
            0 -1 26 3.7225233390927315e-03</internalNodes>
          <leafValues>
            2.0318007469177246e-01 -9.2893069982528687e-01</leafValues></_>
        <_>
          <internalNodes>
            0 -1 29 -2.3249560035765171e-03</internalNodes>
          <leafValues>
            -9.6440559625625610e-01 1.8869818747043610e-01</leafValues></_>
        <_>
          <internalNodes>
            0 -1 18 2.1325293346308172e-05</internalNodes>
          <leafValues>
            -6.8737131357192993e-01 1.9631548225879669e-01</leafValues></_>
        <_>
          <internalNodes>
            0 -1 13 -4.7073774039745331e-02</internalNodes>
          <leafValues>
            -4.9194037914276123e-01 3.8212344050407410e-01</leafValues></_>
        <_>
          <internalNodes>
            0 -1 33 -2.5578881613910198e-03</internalNodes>
          <leafValues>
            5.0129115581512451e-01 -3.8431438803672791e-01</leafValues></_>
        <_>
          <internalNodes>
            0 -1 24 -1.4964787987992167e-04</internalNodes>
          <leafValues>
            -8.7730234861373901e-01 2.0634208619594574e-01</leafValues></_></weakClassifiers></_>
    <!-- stage 6 -->
    <_>
      <maxWeakCount>10</maxWeakCount>
      <stageThreshold>-1.9521081447601318e+00</stageThreshold>
      <weakClassifiers>
        <_>
          <internalNodes>
            0 -1 45 -3.7807114422321320e-02</internalNodes>
          <leafValues>
            -4.4939270615577698e-01 -9.4353252649307251e-01</leafValues></_>
        <_>
          <internalNodes>
            0 -1 47 6.1809148639440536e-02</internalNodes>
          <leafValues>
            -7.4910432100296021e-01 2.8584238886833191e-01</leafValues></_>
        <_>
          <internalNodes>
            0 -1 20 2.5648949667811394e-03</internalNodes>
          <leafValues>
            -6.6886430978775024e-01 2.3828969895839691e-01</leafValues></_>
        <_>
          <internalNodes>
            0 -1 22 -3.6448294849833474e-05</internalNodes>
          <leafValues>
            2.8076553344726562e-01 -6.0040313005447388e-01</leafValues></_>
        <_>
          <internalNodes>
            0 -1 19 -2.3222402669489384e-03</internalNodes>
          <leafValues>
            3.2446098327636719e-01 -5.3657150268554688e-01</leafValues></_>
        <_>
          <internalNodes>
            0 -1 31 -1.8946295604109764e-03</internalNodes>
          <leafValues>
            -9.4843596220016479e-01 1.9106732308864594e-01</leafValues></_>
        <_>
          <internalNodes>
            0 -1 48 1.8099175576935522e-05</internalNodes>
          <leafValues>
            -5.2383917570114136e-01 2.9156613349914551e-01</leafValues></_>
        <_>
          <internalNodes>
            0 -1 16 -3.1736819073557854e-04</internalNodes>
          <leafValues>
            -8.2293647527694702e-01 1.8739895522594452e-01</leafValues></_>
        <_>
          <internalNodes>
            0 -1 39 -1.9962782971560955e-03</internalNodes>
          <leafValues>
            4.1057157516479492e-01 -3.8666230440139771e-01</leafValues></_>
        <_>
          <internalNodes>
            0 -1 44 2.8996891342103481e-03</internalNodes>
          <leafValues>
            -4.7995078563690186e-01 4.0196499228477478e-01</leafValues></_></weakClassifiers></_></stages>
  <features>
    <_>
      <rects>
        <_>
          0 0 4 16 -1.</_>
        <_>
          0 0 2 8 2.</_>
        <_>
          2 8 2 8 2.</_></rects>
      <tilted>0</tilted></_>
    <_>
      <rects>
        <_>
          0 0 12 30 -1.</_>
        <_>
          6 0 6 30 2.</_></rects>
      <tilted>0</tilted></_>
    <_>
      <rects>
        <_>
          0 0 14 8 -1.</_>
        <_>
          0 0 7 4 2.</_>
        <_>
          7 4 7 4 2.</_></rects>
      <tilted>0</tilted></_>
    <_>
      <rects>
        <_>
          0 0 18 8 -1.</_>
        <_>
          0 0 9 4 2.</_>
        <_>
          9 4 9 4 2.</_></rects>
      <tilted>0</tilted></_>
    <_>
      <rects>
        <_>
          0 0 30 2 -1.</_>
        <_>
          10 0 10 2 3.</_></rects>
      <tilted>0</tilted></_>
    <_>
      <rects>
        <_>
          0 0 30 6 -1.</_>
        <_>
          0 2 30 2 3.</_></rects>
      <tilted>0</tilted></_>
    <_>
      <rects>
        <_>
          0 1 10 10 -1.</_>
        <_>
          0 1 5 5 2.</_>
        <_>
          5 6 5 5 2.</_></rects>
      <tilted>0</tilted></_>
    <_>
      <rects>
        <_>
          0 3 30 25 -1.</_>
        <_>
          10 3 10 25 3.</_></rects>
      <tilted>0</tilted></_>
    <_>
      <rects>
        <_>
          0 6 8 8 -1.</_>
        <_>
          4 6 4 8 2.</_></rects>
      <tilted>0</tilted></_>
    <_>
      <rects>
        <_>
          0 11 4 18 -1.</_>
        <_>
          0 11 2 9 2.</_>
        <_>
          2 20 2 9 2.</_></rects>
      <tilted>0</tilted></_>
    <_>
      <rects>
        <_>
          0 14 6 16 -1.</_>
        <_>
          0 14 3 8 2.</_>
        <_>
          3 22 3 8 2.</_></rects>
      <tilted>0</tilted></_>
    <_>
      <rects>
        <_>
          0 25 30 5 -1.</_>
        <_>
          10 25 10 5 3.</_></rects>
      <tilted>0</tilted></_>
    <_>
      <rects>
        <_>
          1 0 2 16 -1.</_>
        <_>
          1 0 1 8 2.</_>
        <_>
          2 8 1 8 2.</_></rects>
      <tilted>0</tilted></_>
    <_>
      <rects>
        <_>
          1 4 29 26 -1.</_>
        <_>
          1 17 29 13 2.</_></rects>
      <tilted>0</tilted></_>
    <_>
      <rects>
        <_>
          1 22 12 8 -1.</_>
        <_>
          1 22 6 4 2.</_>
        <_>
          7 26 6 4 2.</_></rects>
      <tilted>0</tilted></_>
    <_>
      <rects>
        <_>
          3 0 21 30 -1.</_>
        <_>
          3 10 21 10 3.</_></rects>
      <tilted>0</tilted></_>
    <_>
      <rects>
        <_>
          3 18 3 3 -1.</_>
        <_>
          3 19 3 1 3.</_></rects>
      <tilted>0</tilted></_>
    <_>
      <rects>
        <_>
          4 19 2 1 -1.</_>
        <_>
          5 19 1 1 2.</_></rects>
      <tilted>0</tilted></_>
    <_>
      <rects>
        <_>
          4 22 2 1 -1.</_>
        <_>
          5 22 1 1 2.</_></rects>
      <tilted>0</tilted></_>
    <_>
      <rects>
        <_>
          5 0 5 6 -1.</_>
        <_>
          5 2 5 2 3.</_></rects>
      <tilted>0</tilted></_>
    <_>
      <rects>
        <_>
          5 5 1 12 -1.</_>
        <_>
          5 11 1 6 2.</_></rects>
      <tilted>0</tilted></_>
    <_>
      <rects>
        <_>
          5 6 19 24 -1.</_>
        <_>
          5 14 19 8 3.</_></rects>
      <tilted>0</tilted></_>
    <_>
      <rects>
        <_>
          5 18 1 2 -1.</_>
        <_>
          5 19 1 1 2.</_></rects>
      <tilted>0</tilted></_>
    <_>
      <rects>
        <_>
          5 18 18 11 -1.</_>
        <_>
          14 18 9 11 2.</_></rects>
      <tilted>0</tilted></_>
    <_>
      <rects>
        <_>
          5 19 1 3 -1.</_>
        <_>
          5 20 1 1 3.</_></rects>
      <tilted>0</tilted></_>
    <_>
      <rects>
        <_>
          5 22 2 2 -1.</_>
        <_>
          5 23 2 1 2.</_></rects>
      <tilted>0</tilted></_>
    <_>
      <rects>
        <_>
          5 23 9 4 -1.</_>
        <_>
          8 23 3 4 3.</_></rects>
      <tilted>0</tilted></_>
    <_>
      <rects>
        <_>
          6 2 16 27 -1.</_>
        <_>
          6 11 16 9 3.</_></rects>
      <tilted>0</tilted></_>
    <_>
      <rects>
        <_>
          6 7 16 14 -1.</_>
        <_>
          6 14 16 7 2.</_></rects>
      <tilted>0</tilted></_>
    <_>
      <rects>
        <_>
          6 22 6 5 -1.</_>
        <_>
          8 22 2 5 3.</_></rects>
      <tilted>0</tilted></_>
    <_>
      <rects>
        <_>
          8 2 14 28 -1.</_>
        <_>
          15 2 7 28 2.</_></rects>
      <tilted>0</tilted></_>
    <_>
      <rects>
        <_>
          8 24 6 6 -1.</_>
        <_>
          10 24 2 6 3.</_></rects>
      <tilted>0</tilted></_>
    <_>
      <rects>
        <_>
          10 8 14 22 -1.</_>
        <_>
          10 8 7 11 2.</_>
        <_>
          17 19 7 11 2.</_></rects>
      <tilted>0</tilted></_>
    <_>
      <rects>
        <_>
          10 8 11 6 -1.</_>
        <_>
          10 10 11 2 3.</_></rects>
      <tilted>0</tilted></_>
    <_>
      <rects>
        <_>
          11 0 18 8 -1.</_>
        <_>
          11 0 9 4 2.</_>
        <_>
          20 4 9 4 2.</_></rects>
      <tilted>0</tilted></_>
    <_>
      <rects>
        <_>
          16 0 14 8 -1.</_>
        <_>
          16 0 7 4 2.</_>
        <_>
          23 4 7 4 2.</_></rects>
      <tilted>0</tilted></_>
    <_>
      <rects>
        <_>
          16 0 14 10 -1.</_>
        <_>
          16 0 7 5 2.</_>
        <_>
          23 5 7 5 2.</_></rects>
      <tilted>0</tilted></_>
    <_>
      <rects>
        <_>
          17 0 12 8 -1.</_>
        <_>
          17 0 6 4 2.</_>
        <_>
          23 4 6 4 2.</_></rects>
      <tilted>0</tilted></_>
    <_>
      <rects>
        <_>
          18 0 12 27 -1.</_>
        <_>
          24 0 6 27 2.</_></rects>
      <tilted>0</tilted></_>
    <_>
      <rects>
        <_>
          18 0 8 2 -1.</_>
        <_>
          18 1 8 1 2.</_></rects>
      <tilted>0</tilted></_>
    <_>
      <rects>
        <_>
          18 1 12 4 -1.</_>
        <_>
          24 1 6 4 2.</_></rects>
      <tilted>0</tilted></_>
    <_>
      <rects>
        <_>
          18 26 12 4 -1.</_>
        <_>
          24 26 6 4 2.</_></rects>
      <tilted>0</tilted></_>
    <_>
      <rects>
        <_>
          20 0 10 30 -1.</_>
        <_>
          25 0 5 30 2.</_></rects>
      <tilted>0</tilted></_>
    <_>
      <rects>
        <_>
          20 14 10 16 -1.</_>
        <_>
          20 14 5 8 2.</_>
        <_>
          25 22 5 8 2.</_></rects>
      <tilted>0</tilted></_>
    <_>
      <rects>
        <_>
          21 7 6 12 -1.</_>
        <_>
          23 7 2 12 3.</_></rects>
      <tilted>0</tilted></_>
    <_>
      <rects>
        <_>
          23 1 6 14 -1.</_>
        <_>
          23 1 3 7 2.</_>
        <_>
          26 8 3 7 2.</_></rects>
      <tilted>0</tilted></_>
    <_>
      <rects>
        <_>
          23 10 6 20 -1.</_>
        <_>
          23 10 3 10 2.</_>
        <_>
          26 20 3 10 2.</_></rects>
      <tilted>0</tilted></_>
    <_>
      <rects>
        <_>
          24 15 6 14 -1.</_>
        <_>
          27 15 3 14 2.</_></rects>
      <tilted>0</tilted></_>
    <_>
      <rects>
        <_>
          24 28 2 2 -1.</_>
        <_>
          24 29 2 1 2.</_></rects>
      <tilted>0</tilted></_></features></cascade>
</opencv_storage>
